<?xml version="1.0"?>
<opencv_storage>
<stage5>
  <maxWeakCount>6</maxWeakCount>
  <stageThreshold>-7.9287856817245483e-01</stageThreshold>
  <weakClassifiers>
    <_>
      <internalNodes>
        0 -1 29529 1.0161843150854111e-01</internalNodes>
      <leafValues>
        -7.2670805454254150e-01 6.6536962985992432e-01</leafValues></_>
    <_>
      <internalNodes>
        0 -1 60855 -3.1478390097618103e-02</internalNodes>
      <leafValues>
        7.0500904321670532e-01 -5.0572079420089722e-01</leafValues></_>
    <_>
      <internalNodes>
        0 -1 58108 -2.5119545171037316e-04</internalNodes>
      <leafValues>
        -9.0449982881546021e-01 3.8492429256439209e-01</leafValues></_>
    <_>
      <internalNodes>
        0 -1 64440 5.3830772638320923e-02</internalNodes>
      <leafValues>
        -4.5165735483169556e-01 7.1275502443313599e-01</leafValues></_>
    <_>
      <internalNodes>
        0 -1 49191 5.3184153512120247e-04</internalNodes>
      <leafValues>
        2.8006213903427124e-01 -9.8869031667709351e-01</leafValues></_>
    <_>
      <internalNodes>
        0 -1 54009 5.4507814347743988e-03</internalNodes>
      <leafValues>
        -8.7500602006912231e-01 2.2622124850749969e-01</leafValues></_></weakClassifiers></stage5>
</opencv_storage>
