<?xml version="1.0"?>
<opencv_storage>
<stage4>
  <maxWeakCount>5</maxWeakCount>
  <stageThreshold>-9.6935141086578369e-01</stageThreshold>
  <weakClassifiers>
    <_>
      <internalNodes>
        0 -1 24436 4.8775322735309601e-02</internalNodes>
      <leafValues>
        -6.9044417142868042e-01 7.2202348709106445e-01</leafValues></_>
    <_>
      <internalNodes>
        0 -1 53453 -1.5704831457696855e-04</internalNodes>
      <leafValues>
        -9.5102924108505249e-01 4.3472418189048767e-01</leafValues></_>
    <_>
      <internalNodes>
        0 -1 54498 -3.2352034002542496e-02</internalNodes>
      <leafValues>
        8.1205981969833374e-01 -4.5786982774734497e-01</leafValues></_>
    <_>
      <internalNodes>
        0 -1 51009 -7.9572364687919617e-02</internalNodes>
      <leafValues>
        6.5026640892028809e-01 -5.6041336059570312e-01</leafValues></_>
    <_>
      <internalNodes>
        0 -1 48940 1.2045791372656822e-03</internalNodes>
      <leafValues>
        -9.3153792619705200e-01 3.0465173721313477e-01</leafValues></_></weakClassifiers></stage4>
</opencv_storage>
